digraph Tree {
node [shape=box, style="filled, rounded", color="black", fontname="helvetica"] ;
edge [fontname="helvetica"] ;
0 [label=<gini = 0.375<br/>samples = 4<br/>value = [1, 3]<br/>class = Stroke>, fillcolor="#7bbeee"] ;
}
